0.02267860248684883
0.05939062312245369
0.10853063315153122
0.04468571022152901
-0.027342984452843666
0.04545578733086586
0.011345168575644493
0.0909576565027237
-0.004270128905773163
0.08142773807048798
0.046125803142786026
0.02041560970246792
-0.01453985832631588
0.009338954463601112
-0.004963247571140528
-0.04823341965675354
0.08752458542585373
-0.00954351481050253
0.05924246087670326
0.04218200966715813
-0.006796128582209349
0.06997766345739365
0.06390832364559174
0.09094368666410446
0.07959481328725815
-0.05002334713935852
0.08094681799411774
0.02154318429529667
-0.009348166175186634
0.05461397022008896
0.012733143754303455
0.08675899356603622
0.008745999075472355
0.01942412182688713
-0.0753975659608841
-0.0031600680667907
-0.006426871754229069
0.011919991113245487
-0.009954812936484814
-0.004105117172002792
-0.021188190206885338
0.020635955035686493
-0.0011266472283750772
0.09185198694467545
0.05295442417263985
-0.018199117854237556
-0.0024180770851671696
0.025791842490434647
-0.016503337770700455
0.017704186961054802
0.09236112236976624
0.018797587603330612
-0.014702478423714638
-0.021874984726309776
0.02096177451312542
-0.007996970787644386
0.033075690269470215
0.05667078122496605
-0.023602915927767754
0.0213210117071867
0.031025180593132973
0.005861458834260702
0.04382748529314995
0.012861144728958607
-0.013196862302720547
-0.00013516271428670734
0.010667717084288597
-0.003932714927941561
-0.023872243240475655
0.04603048041462898
-0.036681994795799255
6.0309466789476573e-05
-0.00297390460036695
-0.0006347050075419247
-0.00958169624209404
0.032148122787475586
0.010651652701199055
0.059311531484127045
-0.012206506915390491
-0.005313894245773554
-0.023594651371240616
-0.010950770229101181
0.01439649984240532
-0.017268013209104538
