0.002038902835920453
0.054058704525232315
-0.001441394560970366
0.004790404811501503
0.0150973005220294
-0.03593142330646515
0.0006905585178174078
0.011520526371896267
0.021296130493283272
-0.01320800743997097
0.00140863296110183
0.008929075673222542
0.009172182530164719
-0.004986070562154055
-0.002605288755148649
-0.008044639602303505
-0.004925834946334362
-0.0012356899678707123
0.009676764719188213
0.01220095343887806
-0.000987853156402707
-8.132282528094947e-05
0.005618263967335224
-0.0005889508756808937
0.019274216145277023
-0.008426795713603497
-0.009671064093708992
-0.01926741562783718
0.003671081969514489
0.02672974392771721
0.0
-0.013717451132833958
-0.0009911222150549293
0.01914789155125618
-0.00773202208802104
-0.014064551331102848
0.0002513921936042607
-0.007017961703240871
-0.006091002374887466
0.052703212946653366
-0.00039945062599144876
-0.015893977135419846
-0.025674840435385704
0.013198481872677803
0.0
-0.03567561134696007
-0.009194444864988327
-0.0005912806373089552
0.002486885990947485
0.021510761231184006
0.004491318017244339
-0.010905953124165535
-0.00018207480025012046
-0.00021573701815214008
0.015202677808701992
0.0017994369845837355
0.0001834007416618988
-0.03337455168366432
-0.009512979537248611
0.011599802412092686
0.0153984809294343
0.010143913328647614
-0.006555766332894564
0.00011445037671364844
0.0013738240813836455
-0.017048487439751625
0.08179736137390137
4.8551708459854126e-05
-0.0006462665623985231
-1.0062185538117774e-06
0.006406796630471945
0.0445045530796051
0.0
-0.010551895014941692
0.018030842766165733
0.006335935089737177
0.0024789785966277122
-0.004350643139332533
-0.010437454096972942
0.0004219335678499192
0.009890208952128887
0.04516908898949623
-0.0015104339690878987
0.00735715264454484
-2.8310564630373847e-06
0.015126710757613182
-0.0015188505640253425
0.0068849665112793446
0.01054464466869831
0.017306547611951828
-0.0009351594489999115
0.017139047384262085
-0.030487287789583206
0.019558940082788467
-0.0017400167416781187
-0.033378299325704575
0.0010983831016346812
-0.012800856493413448
0.009274444542825222
0.0356094054877758
-0.0009464588947594166
0.00015521493332926184
0.025332948192954063
0.0182967409491539
-0.0013887893874198198
-0.0069559789262712
0.0011398479109629989
0.017647093161940575
-0.003606783924624324
0.028756318613886833
0.09233605116605759
0.04225464537739754
-0.0038087822031229734
-0.0008155917166732252
0.01580439880490303
-0.000425785721745342
0.011816347949206829
0.019571300595998764
0.03293841704726219
0.00178811838850379
