-0.010820751078426838
0.060419004410505295
-0.007651851512491703
0.010912884026765823
-0.007569091860204935
0.03617630526423454
-0.004122640006244183
0.00018823920981958508
0.012699154205620289
-0.012224388308823109
0.0030908938497304916
0.03419296815991402
-0.0013631515903398395
-0.005693856161087751
0.007356483954936266
-0.012530732899904251
0.008917059749364853
-0.013434695079922676
0.006131990347057581
-0.0004038696351926774
0.060837481170892715
0.03494484722614288
0.020287323743104935
-0.004284726455807686
-0.01655348762869835
0.025959907099604607
0.03200933337211609
0.00023310801771003753
-0.05094730481505394
-0.0016542604425922036
0.016332637518644333
0.02462940104305744
-0.02611229196190834
0.03178877755999565
0.003457709215581417
-0.010914071463048458
0.037846680730581284
-0.013372770510613918
0.027133535593748093
0.05099237337708473
-0.024733657017350197
0.0027883092407137156
-0.025199461728334427
0.06613606214523315
0.0003971957485191524
0.026972554624080658
-0.006190060172230005
0.002055082004517317
-0.014411656185984612
0.006130874622613192
0.03884193301200867
-0.01308716181665659
0.0010548430727794766
0.029138663783669472
0.05915218964219093
0.004395423457026482
0.006601118016988039
0.009688290767371655
-0.00843493826687336
0.02782994508743286
0.03322694078087807
0.06844339519739151
5.0806109356926754e-05
-0.006270854268223047
-0.002656391588971019
0.04231591522693634
-0.01919747143983841
0.002627730369567871
0.04426370561122894
0.007641816046088934
-0.0016917942557483912
-0.02229788340628147
0.01633993536233902
0.03425727039575577
0.008310449309647083
0.0214744433760643
-0.005581317003816366
0.004249307792633772
0.01409306563436985
-0.002274799160659313
0.034755557775497437
-0.00021631720301229507
0.011026647873222828
0.033907659351825714
