0.006572261452674866
0.00914802122861147
-0.0009174883016385138
0.018236061558127403
0.018405484035611153
0.02161809429526329
0.051162540912628174
-0.007930245250463486
0.0893828272819519
3.111437399638817e-05
0.00706326961517334
-0.00021618057508021593
0.006832825019955635
0.07230079174041748
0.017063794657588005
0.010752098634839058
0.03856150433421135
0.028639117255806923
0.04001486673951149
0.0005476196529343724
-0.0029569745529443026
-0.004447616636753082
0.0013761785812675953
-0.01046331413090229
-0.0237736739218235
-0.02622247487306595
-0.0005036653019487858
0.02324640192091465
-0.013331047259271145
0.0010062167420983315
-0.0068501560017466545
0.001981875393539667
0.014721621759235859
0.008301830850541592
-0.005653584375977516
-0.007211689371615648
-0.009949813596904278
0.02184896357357502
0.0034890302922576666
0.0306728295981884
0.02984015643596649
-0.0019088515546172857
-0.005273611284792423
6.5982538217213e-05
0.009273236617445946
0.015652362257242203
0.0671297237277031
0.026197070255875587
-0.016403548419475555
0.025008870288729668
-0.0010688862530514598
-0.010612701065838337
-0.002105141058564186
0.01032247580587864
-0.0025807074271142483
0.00818678643554449
-0.00798045564442873
0.029239235445857048
0.001648243167437613
0.03325605019927025
0.04740237072110176
0.014944854192435741
0.033305637538433075
0.0019129483262076974
0.016871539875864983
0.0011364107485860586
0.004140491131693125
-0.0008660769090056419
0.031946539878845215
-0.00024794740602374077
0.0020932857878506184
-0.01605588011443615
0.00731345871463418
0.03618023172020912
0.00965039897710085
-0.009444691240787506
-0.0025265265721827745
0.011110433377325535
0.0187714584171772
-0.0158716831356287
-0.0030994329135864973
-0.0108116390183568
-0.006193509325385094
-0.011179926805198193
-0.008418349549174309
0.008155854418873787
0.0009870846988633275
0.030531587079167366
0.04478757828474045
0.011498240754008293
0.016188953071832657
0.01845165714621544
0.0007219829130917788
0.019529251381754875
0.020305119454860687
-0.01655157096683979
-0.0009679984068498015
0.0016802259488031268
-0.012149635702371597
0.027959655970335007
-0.003981976304203272
-0.005527894478291273
-0.00526640098541975
-0.015031320042908192
0.014008773490786552
0.0013559572398662567
0.02007119543850422
0.011237573809921741
-0.015177980996668339
-0.02017899602651596
-0.0019591967575252056
-0.011053246445953846
-0.0070112040266394615
-0.02277214825153351
0.008505264297127724
-0.012043226510286331
0.013358905911445618
0.0010734976967796683
-0.012573284097015858
-0.0007882980862632394
